<?xml version="1.0"?>
<opencv_storage>
<cascade>
  <stageType>BOOST</stageType>
  <featureType>LBP</featureType>
  <height>22</height>
  <width>57</width>
  <stageParams>
    <boostType>GAB</boostType>
    <minHitRate>9.9500000476837158e-01</minHitRate>
    <maxFalseAlarm>5.0000000000000000e-01</maxFalseAlarm>
    <weightTrimRate>9.4999999999999996e-01</weightTrimRate>
    <maxDepth>1</maxDepth>
    <maxWeakCount>100</maxWeakCount></stageParams>
  <featureParams>
    <maxCatCount>256</maxCatCount>
    <featSize>1</featSize></featureParams>
  <stageNum>18</stageNum>
  <stages>
    <!-- stage 0 -->
    <_>
      <maxWeakCount>1</maxWeakCount>
      <stageThreshold>8.5714286565780640e-01</stageThreshold>
      <weakClassifiers>
        <_>
          <internalNodes>
            0 -1 4 -1644003318 -1694498815 0 8454144 -2013233016
            -2004285440 -2146926462 -615808757</internalNodes>
          <leafValues>
            -1. 8.5714286565780640e-01</leafValues></_></weakClassifiers></_>
    <!-- stage 1 -->
    <_>
      <maxWeakCount>2</maxWeakCount>
      <stageThreshold>-1.4059872925281525e-01</stageThreshold>
      <weakClassifiers>
        <_>
          <internalNodes>
            0 -1 10 16973827 285212672 16657 -989790191 8962184
            -2013265792 8389001 -1182269429</internalNodes>
          <leafValues>
            -9.3333333730697632e-01 8.4615385532379150e-01</leafValues></_>
        <_>
          <internalNodes>
            0 -1 6 1074511878 1375731712 16385 -804188159 49290
            -939393024 -2147434359 -1693724661</internalNodes>
          <leafValues>
            -9.8675256967544556e-01 7.9574400186538696e-01</leafValues></_></weakClassifiers></_>
    <!-- stage 2 -->
    <_>
      <maxWeakCount>2</maxWeakCount>
      <stageThreshold>-1.2875676155090332e-01</stageThreshold>
      <weakClassifiers>
        <_>
          <internalNodes>
            0 -1 15 -2147348461 164864 16 285212672 -2147483510
            -2013265912 -1879046004 -2012708728</internalNodes>
          <leafValues>
            -9.7278910875320435e-01 8.5294115543365479e-01</leafValues></_>
        <_>
          <internalNodes>
            0 -1 19 285229209 1358954497 17 285212672 -2139060056 65696
            -2122153591 -1582791800</internalNodes>
          <leafValues>
            -9.7367465496063232e-01 8.4403234720230103e-01</leafValues></_></weakClassifiers></_>
    <!-- stage 3 -->
    <_>
      <maxWeakCount>2</maxWeakCount>
      <stageThreshold>-1.2807264924049377e-01</stageThreshold>
      <weakClassifiers>
        <_>
          <internalNodes>
            0 -1 5 -926694381 -1069461248 1 -788299759 -2146926592
            -1073709054 -2134867968 -505298791</internalNodes>
          <leafValues>
            -9.4594591856002808e-01 8.2089549303054810e-01</leafValues></_>
        <_>
          <internalNodes>
            0 -1 14 1476591899 -788529152 32785 1358954768 -1870084083
            -1744273256 -2147415892 -116883448</internalNodes>
          <leafValues>
            -9.4896817207336426e-01 8.7644195556640625e-01</leafValues></_></weakClassifiers></_>
    <!-- stage 4 -->
    <_>
      <maxWeakCount>2</maxWeakCount>
      <stageThreshold>-7.2758808732032776e-02</stageThreshold>
      <weakClassifiers>
        <_>
          <internalNodes>
            0 -1 9 1125585040 -754974720 -2147483502 -721354750
            -2146924404 -931135488 134250664 -276264822</internalNodes>
          <leafValues>
            -9.5999997854232788e-01 9.0769231319427490e-01</leafValues></_>
        <_>
          <internalNodes>
            0 -1 17 -2094823424 -752877567 321 -788529152 -2012706680
            -1970798592 -2130706262 -611680113</internalNodes>
          <leafValues>
            -9.7422575950622559e-01 8.8724118471145630e-01</leafValues></_></weakClassifiers></_>
    <!-- stage 5 -->
    <_>
      <maxWeakCount>2</maxWeakCount>
      <stageThreshold>-1.5042316913604736e-01</stageThreshold>
      <weakClassifiers>
        <_>
          <internalNodes>
            0 -1 13 181473555 2100629509 1346535441 -721411584
            -2139078519 -671088640 -2146891702 -75169789</internalNodes>
          <leafValues>
            -9.5890408754348755e-01 7.9710143804550171e-01</leafValues></_>
        <_>
          <internalNodes>
            0 -1 12 16973857 -1056890880 201596945 -149925693
            -2113372150 -912260096 -2147367799 -277771582</internalNodes>
          <leafValues>
            -9.4752460718154907e-01 8.1558227539062500e-01</leafValues></_></weakClassifiers></_>
    <!-- stage 6 -->
    <_>
      <maxWeakCount>2</maxWeakCount>
      <stageThreshold>-1.8836146593093872e-01</stageThreshold>
      <weakClassifiers>
        <_>
          <internalNodes>
            0 -1 7 -2146678223 2134017 1098907985 -2111827952 606273539
            -1055915520 -2113613695 -242562933</internalNodes>
          <leafValues>
            -9.5833331346511841e-01 7.4647885560989380e-01</leafValues></_>
        <_>
          <internalNodes>
            0 -1 22 486552695 1077936133 1611153409 -1862000639
            171966476 -485470048 404852752 -1365532597</internalNodes>
          <leafValues>
            -9.3484032154083252e-01 8.5691648721694946e-01</leafValues></_></weakClassifiers></_>
    <!-- stage 7 -->
    <_>
      <maxWeakCount>2</maxWeakCount>
      <stageThreshold>-1.9145299494266510e-01</stageThreshold>
      <weakClassifiers>
        <_>
          <internalNodes>
            0 -1 29 34832539 1367408653 1090520087 2072772618
            -1073217400 -2038299134 -2139061623 -1968920956</internalNodes>
          <leafValues>
            -9.4444441795349121e-01 7.1830987930297852e-01</leafValues></_>
        <_>
          <internalNodes>
            0 -1 33 -1038892917 -788266992 -1879039919 -637435840
            -1878990710 16812044 164268 -245110141</internalNodes>
          <leafValues>
            -9.0976285934448242e-01 8.6159205436706543e-01</leafValues></_></weakClassifiers></_>
    <!-- stage 8 -->
    <_>
      <maxWeakCount>2</maxWeakCount>
      <stageThreshold>3.4960590302944183e-02</stageThreshold>
      <weakClassifiers>
        <_>
          <internalNodes>
            0 -1 20 64488807 -519503584 279511060 -4095796 -1 -1
            -1308631106 -92094464</internalNodes>
          <leafValues>
            -8.8607597351074219e-01 9.6491229534149170e-01</leafValues></_>
        <_>
          <internalNodes>
            0 -1 11 713490961 -1585343231 539009041 1347223680 134268544
            -1608515032 -1333755462 -276190719</internalNodes>
          <leafValues>
            -9.0685880184173584e-01 9.2103654146194458e-01</leafValues></_></weakClassifiers></_>
    <!-- stage 9 -->
    <_>
      <maxWeakCount>2</maxWeakCount>
      <stageThreshold>-1.6982606053352356e-01</stageThreshold>
      <weakClassifiers>
        <_>
          <internalNodes>
            0 -1 3 -922495725 1377943552 98304 1098973185 -1602174907
            1619067008 -2147471168 -139816821</internalNodes>
          <leafValues>
            -9.3197280168533325e-01 7.6470589637756348e-01</leafValues></_>
        <_>
          <internalNodes>
            0 -1 23 -1979572221 4375553 2852 -553581568 -1048573298
            -527194072 -2147434327 -352804030</internalNodes>
          <leafValues>
            -9.3453192710876465e-01 7.9678457975387573e-01</leafValues></_></weakClassifiers></_>
    <!-- stage 10 -->
    <_>
      <maxWeakCount>2</maxWeakCount>
      <stageThreshold>-2.5672060251235962e-01</stageThreshold>
      <weakClassifiers>
        <_>
          <internalNodes>
            0 -1 8 621478147 -922217215 1091572048 -201326336
            -2012739432 -1602207736 -801062774 -75493376</internalNodes>
          <leafValues>
            -9.5744681358337402e-01 6.7567569017410278e-01</leafValues></_>
        <_>
          <internalNodes>
            0 -1 31 -1001135817 -519880702 -2147467119 1367539969 49282
            512 17563 -366826357</internalNodes>
          <leafValues>
            -9.3239629268646240e-01 8.1116175651550293e-01</leafValues></_></weakClassifiers></_>
    <!-- stage 11 -->
    <_>
      <maxWeakCount>2</maxWeakCount>
      <stageThreshold>-1.3264672458171844e-01</stageThreshold>
      <weakClassifiers>
        <_>
          <internalNodes>
            0 -1 16 -351215271 -2109472638 -1476198399 -752778864
            1157628225 -1599864828 -2144263871 -90654420</internalNodes>
          <leafValues>
            -9.3243241310119629e-01 7.9104477167129517e-01</leafValues></_>
        <_>
          <internalNodes>
            0 -1 28 -1874669293 1460863249 268435485 352321553
            -2147416052 -804585463 8945808 -1266438141</internalNodes>
          <leafValues>
            -9.2369151115417480e-01 8.4386640787124634e-01</leafValues></_></weakClassifiers></_>
    <!-- stage 12 -->
    <_>
      <maxWeakCount>2</maxWeakCount>
      <stageThreshold>-1.0675884783267975e-01</stageThreshold>
      <weakClassifiers>
        <_>
          <internalNodes>
            0 -1 18 285347923 830570521 1078165798 1495566712
            -1996455597 -1874853719 -1602174975 -290811760</internalNodes>
          <leafValues>
            -8.8235294818878174e-01 8.0645161867141724e-01</leafValues></_>
        <_>
          <internalNodes>
            0 -1 26 637993433 -1040613368 -2147475437 -1291714560 4280
            -2146762239 -2004844406 -1333156382</internalNodes>
          <leafValues>
            -9.1321045160293579e-01 8.2672375440597534e-01</leafValues></_></weakClassifiers></_>
    <!-- stage 13 -->
    <_>
      <maxWeakCount>2</maxWeakCount>
      <stageThreshold>-2.5567010045051575e-01</stageThreshold>
      <weakClassifiers>
        <_>
          <internalNodes>
            0 -1 32 -788299389 -1073577984 134217753 1904218113 33720339
            -2126479200 -502234982 -1052532601</internalNodes>
          <leafValues>
            -9.5744681358337402e-01 6.7567569017410278e-01</leafValues></_>
        <_>
          <internalNodes>
            0 -1 21 1392562485 1075838994 1073807361 -1056696189
            402788480 -2078800896 -520057695 -17002076</internalNodes>
          <leafValues>
            -9.3134582042694092e-01 7.6127243041992188e-01</leafValues></_></weakClassifiers></_>
    <!-- stage 14 -->
    <_>
      <maxWeakCount>2</maxWeakCount>
      <stageThreshold>-8.6437761783599854e-02</stageThreshold>
      <weakClassifiers>
        <_>
          <internalNodes>
            0 -1 1 -1869358757 1360019465 147473 -653197312 -2147385213
            -2139059584 134824082 -242497383</internalNodes>
          <leafValues>
            -8.9542484283447266e-01 8.3870965242385864e-01</leafValues></_>
        <_>
          <internalNodes>
            0 -1 2 -1052290997 318832928 65553 -451409904 11586185
            8388624 -1467842431 -1278574581</internalNodes>
          <leafValues>
            -9.2514741420745850e-01 8.2132077217102051e-01</leafValues></_></weakClassifiers></_>
    <!-- stage 15 -->
    <_>
      <maxWeakCount>2</maxWeakCount>
      <stageThreshold>5.3300201892852783e-02</stageThreshold>
      <weakClassifiers>
        <_>
          <internalNodes>
            0 -1 34 -1073795381 151044162 4864 -127 -32898 -939524097
            -2004221963 -98317178</internalNodes>
          <leafValues>
            -8.3950614929199219e-01 9.6226418018341064e-01</leafValues></_>
        <_>
          <internalNodes>
            0 -1 24 -2079849951 321011840 142639249 891355136
            -2013230966 -1992294392 134793896 -358250356</internalNodes>
          <leafValues>
            -8.7745732069015503e-01 8.9280635118484497e-01</leafValues></_></weakClassifiers></_>
    <!-- stage 16 -->
    <_>
      <maxWeakCount>2</maxWeakCount>
      <stageThreshold>-1.4675945043563843e-01</stageThreshold>
      <weakClassifiers>
        <_>
          <internalNodes>
            0 -1 30 1099389971 1627588609 -939524016 -1073149952
            34095289 721461393 -1542952807 -125074417</internalNodes>
          <leafValues>
            -9.3197280168533325e-01 7.6470589637756348e-01</leafValues></_>
        <_>
          <internalNodes>
            0 -1 0 -1006514101 -1073741824 528384 268730371 1074823704
            -2004810590 -896890743 -87035222</internalNodes>
          <leafValues>
            -9.1146534681320190e-01 8.6260414123535156e-01</leafValues></_></weakClassifiers></_>
    <!-- stage 17 -->
    <_>
      <maxWeakCount>2</maxWeakCount>
      <stageThreshold>-1.4460028707981110e-01</stageThreshold>
      <weakClassifiers>
        <_>
          <internalNodes>
            0 -1 27 -586950223 -997916415 1 -2130690047 -939229027
            -2139078527 -2122153856 -192573157</internalNodes>
          <leafValues>
            -9.3243241310119629e-01 7.9104477167129517e-01</leafValues></_>
        <_>
          <internalNodes>
            0 -1 25 -1065335533 -989396735 -805273067 -251510720
            -2147483063 -532414458 -2013232888 -138892256</internalNodes>
          <leafValues>
            -9.3564504384994507e-01 8.2796227931976318e-01</leafValues></_></weakClassifiers></_></stages>
  <features>
    <_>
      <rect>
        0 9 1 1</rect></_>
    <_>
      <rect>
        1 3 7 6</rect></_>
    <_>
      <rect>
        3 6 6 2</rect></_>
    <_>
      <rect>
        4 2 5 5</rect></_>
    <_>
      <rect>
        5 1 10 7</rect></_>
    <_>
      <rect>
        5 8 3 4</rect></_>
    <_>
      <rect>
        6 0 17 6</rect></_>
    <_>
      <rect>
        14 4 1 1</rect></_>
    <_>
      <rect>
        15 3 2 1</rect></_>
    <_>
      <rect>
        16 9 13 4</rect></_>
    <_>
      <rect>
        17 0 8 2</rect></_>
    <_>
      <rect>
        17 2 1 1</rect></_>
    <_>
      <rect>
        18 3 1 1</rect></_>
    <_>
      <rect>
        19 0 3 2</rect></_>
    <_>
      <rect>
        20 16 7 2</rect></_>
    <_>
      <rect>
        21 16 11 2</rect></_>
    <_>
      <rect>
        22 18 1 1</rect></_>
    <_>
      <rect>
        23 0 10 6</rect></_>
    <_>
      <rect>
        24 0 2 1</rect></_>
    <_>
      <rect>
        24 16 2 2</rect></_>
    <_>
      <rect>
        25 1 2 1</rect></_>
    <_>
      <rect>
        25 19 1 1</rect></_>
    <_>
      <rect>
        26 1 1 1</rect></_>
    <_>
      <rect>
        27 2 1 1</rect></_>
    <_>
      <rect>
        28 0 5 1</rect></_>
    <_>
      <rect>
        33 18 1 1</rect></_>
    <_>
      <rect>
        34 1 1 1</rect></_>
    <_>
      <rect>
        36 4 6 6</rect></_>
    <_>
      <rect>
        36 13 7 2</rect></_>
    <_>
      <rect>
        37 19 1 1</rect></_>
    <_>
      <rect>
        38 1 4 3</rect></_>
    <_>
      <rect>
        38 3 6 5</rect></_>
    <_>
      <rect>
        38 4 6 5</rect></_>
    <_>
      <rect>
        38 11 5 3</rect></_>
    <_>
      <rect>
        53 6 1 1</rect></_></features></cascade>
</opencv_storage>
